<?xml version="1.0"?>
<opencv_storage>
<my_nn type_id="opencv-ml-ann-mlp">
  <layer_sizes type_id="opencv-matrix">
    <rows>1</rows>
    <cols>3</cols>
    <dt>i</dt>
    <data>
      18 30 8</data></layer_sizes>
  <activation_function>SIGMOID_SYM</activation_function>
  <f_param1>6.6666666666666663e-001</f_param1>
  <f_param2>1.7159000000000000e+000</f_param2>
  <min_val>-9.4999999999999996e-001</min_val>
  <max_val>9.4999999999999996e-001</max_val>
  <min_val1>-9.7999999999999998e-001</min_val1>
  <max_val1>9.7999999999999998e-001</max_val1>
  <training_params>
    <train_method>BACKPROP</train_method>
    <dw_scale>5.0000000745058060e-002</dw_scale>
    <moment_scale>5.0000000745058060e-002</moment_scale>
    <term_criteria><epsilon>9.9999997473787516e-006</epsilon>
      <iterations>100</iterations></term_criteria></training_params>
  <input_scale>
    4.2075461796016889e-003 -1.3074984360634938e+000
    7.1564502751236077e-004 -9.9836806188443628e-001
    6.5618049378622541e+000 1.6137282828554095e+001
    1.3314364943826774e+001 -1.8453688979800227e+000
    6.2927320762587229e+000 1.4130132155377558e+001
    4.6091050714644179e+000 1.2828898263737329e+001
    1.3904604304426461e-002 2.1898487724534910e-001
    1.1628883761466797e-002 -2.4510263747978156e-002
    1.2872095316939069e+003 3.1270641447724667e-001
    1.1579446844742463e+003 -1.3295626477066322e+000
    5.1231155704821902e+002 -1.4708965089347774e+000
    3.8605128348380634e+002 1.2997760150950872e+000
    1.0337166497328633e+003 3.3328900293207175e-001
    9.8266588135868051e+002 -1.3947948596773283e+000
    4.3466815509693390e+002 -1.4963062702000614e+000
    3.5623008844974515e+002 1.3506702511507722e+000
    2.3410361959152932e-002 -1.1164006378442799e+000
    2.5142517168733388e-002 -1.0213826515704225e+000</input_scale>
  <output_scale>
    5.2631578947368418e-001 4.9999999999999994e-001
    5.2631578947368418e-001 4.9999999999999994e-001
    5.2631578947368418e-001 4.9999999999999994e-001
    5.2631578947368418e-001 4.9999999999999994e-001
    5.2631578947368418e-001 4.9999999999999994e-001
    5.2631578947368418e-001 4.9999999999999994e-001
    5.2631578947368418e-001 4.9999999999999994e-001
    5.2631578947368418e-001 4.9999999999999994e-001</output_scale>
  <inv_output_scale>
    1.8999999999999999e+000 -9.4999999999999996e-001
    1.8999999999999999e+000 -9.4999999999999996e-001
    1.8999999999999999e+000 -9.4999999999999996e-001
    1.8999999999999999e+000 -9.4999999999999996e-001
    1.8999999999999999e+000 -9.4999999999999996e-001
    1.8999999999999999e+000 -9.4999999999999996e-001
    1.8999999999999999e+000 -9.4999999999999996e-001
    1.8999999999999999e+000 -9.4999999999999996e-001</inv_output_scale>
  <weights>
    <_>
      3.5034895187049585e+001 -2.0412760659741913e+000
      -3.0116236957941067e-001 -4.0233345667361586e+000
      -3.2487082518210936e-001 1.4484269755548549e+000
      8.6849464181553904e-001 2.3741238282063623e-001
      1.7661968387431852e+000 -2.4227197632784443e+000
      -2.2868057449275301e+000 -7.4037510951497176e-001
      -5.1553627626910037e-001 4.6671553008114336e-001
      2.6234177641745391e+000 -5.0670133587809285e-001
      1.7111576022902548e+000 2.1584590287350114e+000
      -5.1959120731446662e-001 2.5085359110792949e-001
      8.6672317441638158e-001 -1.3608952116964785e+000
      -3.4437448629893391e-001 -2.3275124844080124e+000
      1.5998951440656657e+000 6.2867966454904378e-001
      -1.3232876586150615e+000 -1.3381683519106999e+000
      -1.8563226902730900e+000 1.6162266019305280e+000
      3.4172737478982427e+001 -2.3978547405912412e-001
      4.1875117206354159e-002 -3.9274732153555808e-001
      4.1663739180895659e-001 -5.9177467753077384e-001
      3.9167833835460075e-001 -8.7977120717811375e-001
      -1.1898207638049920e+000 -4.4621160218704614e-001
      -2.7792463528258864e+000 2.0679822346046258e-002
      -1.3754108759136632e-001 2.9817194196690217e-001
      -2.7853093537265072e-001 1.1481039583188388e+000
      -5.8744718578976762e-001 1.8037496796021752e+000
      -1.5580870538457683e+000 6.8058242773477062e-001
      1.0474168331827448e-002 -1.3107701790201734e-001
      8.3587359822548379e-001 -6.0207173342699670e-002
      1.0207960954973219e+000 1.8500614773449064e-001
      -9.4142609055390092e-001 4.7879342611828857e-002
      6.2258147008054182e-002 2.2990728435540556e-001
      -1.9999557033390865e+001 1.8439706068823785e+000
      -3.3637059730612445e-001 1.0323292618895856e+000
      9.9569563239133019e-001 1.2782879348902529e+000
      2.7078242319721308e+000 1.8137956179624593e+000
      9.0136776988185519e-001 -7.2457994228236111e-001
      1.0168642807394710e+000 -1.4248341626532552e+000
      -4.9858169173729476e-002 1.9596024587180971e+000
      9.7563082619361446e-003 -1.0969605202368435e-001
      2.0984210783365267e+000 9.4552981625353763e-002
      3.2172643400123766e+000 -2.1406756341079963e-001
      -2.8835389326733951e+000 -4.0775362788544429e+000
      -7.2646177071003515e-001 -8.4140874664631005e-001
      -7.6089121374952473e-001 1.3947125945106493e+000
      1.2249661560134063e-001 1.8845040750283086e+000
      -1.1329113439464220e+000 1.0282570149785504e+000
      4.7712576625766346e+001 -9.3564606223826641e-001
      1.6199422607673910e+000 4.3304943671755014e-001
      -7.7219405591390045e-001 -2.4297124098383742e+000
      -1.4325798934899918e+000 1.2727469160515362e-001
      -2.8461969009959498e-001 -2.6763182258907703e-001
      5.2101647033745624e-001 -1.8883048103613004e-001
      1.7467513227287128e+000 4.3368739372664322e-001
      -3.3174910640958827e-001 -1.3449170355325630e+000
      -1.6110170995808131e+000 -4.2926027503588315e-001
      -9.8981624824811087e-001 -5.6474109390886473e-001
      -1.4738248086873418e-001 3.7819051376414246e+000
      1.1828400292758465e+000 3.3888788210558352e-002
      1.6198401300915550e+000 3.6415228893272977e-001
      -1.6403161191943778e+000 1.1773783355726775e+000
      9.4968681462325300e-001 8.8638116113667098e-001
      8.8046146417149487e+000 -1.2824560217165687e-001
      -1.3103204771830454e-001 -8.9421608306155875e-001
      2.6567195634204893e-001 3.6581923233128416e-001
      1.3920676818363402e+000 2.2275227772844395e+000
      5.5386912845339598e-001 -1.0043888939534518e+000
      6.2107996848200486e-001 -1.4185589598453705e+000
      -4.2877169858587201e-002 2.1274516776283852e+000
      -7.7425250304817994e-001 -6.4202587678543410e-001
      2.2858663686233784e+000 2.4662747959283200e+000
      1.0022131922140467e+000 2.9619112362715100e-001
      -2.0193923326205767e+000 -3.4803247053835434e-001
      -8.4675921377870011e-001 -6.1050344914504240e-001
      4.5794696806271024e-001 1.3878390164539034e+000
      -1.6253368807507080e+000 1.8233518131592592e+000
      -1.8695983441066047e-001 2.0765016631065819e-001
      -5.3243511633134339e+001 1.1177839091618145e+000
      -2.0188404667181552e+000 9.1019867303939184e-001
      1.3301738831259609e+000 2.1319981374663302e+000
      2.1489017164757178e+000 1.5967338130705013e+000
      -2.3558422112935493e+000 1.9046885391157101e-001
      2.2340472072656405e+000 -1.6458260374408924e+000
      -1.5460836279474908e+000 1.6104718701867580e+000
      -2.0891275336486284e+000 -1.7639643683330681e+000
      1.5138318419575196e+000 1.4389665859466172e+000
      3.2189851076234871e-002 9.2434379493680208e-001
      -6.4754167017921671e-001 7.9068644679516842e-001
      -1.5573179222905942e+000 1.4186614545309590e+000
      -9.2353407417311573e-001 6.7908424921341126e-001
      7.7987964049197589e-001 1.4357098320254991e+000
      -8.9812351196699336e-001 -1.6365278565555532e+000
      -1.7495788347189386e+001 -4.1735766082703035e-001
      -2.6072667021102480e-001 2.3047851758919830e-001
      2.1847615214009833e-001 8.4405566183643777e-001
      -1.7585547755430664e-001 -1.5701570164841969e-001
      1.4883728800916132e-001 -8.3552236593181639e-001
      -4.9596713978280482e-001 -4.0977086822194614e-001
      -2.0818341406303523e-002 -9.6655109236921111e-001
      1.5193073677680595e+000 7.4754935569837577e-001
      1.6124389917083848e-001 6.6305974462429706e-001
      2.1984392369090794e-001 3.2653645661262015e-001
      1.7541841524717142e-001 -1.4553840081261740e-001
      7.6349218178784728e-001 9.6086273054689489e-002
      1.1888426162851884e-001 3.3324153516555644e-001
      2.7417267995782635e-001 5.3680560556106871e-001
      -2.7916667473889695e-001 4.6162449954712598e-001
      -4.1841142479699389e+000 1.7794204247669956e-001
      -1.8785467790994972e-001 6.8499429684421012e-003
      1.3177383769557219e-001 -3.3502816809717184e-001
      -9.9811347570364328e-001 -6.3838095948760221e-001
      -6.6064751177703593e-002 1.3701916510250817e-001
      2.5647885356726707e-001 2.7368566968460190e-001
      3.0475048256128989e-001 3.1334481934389563e-001
      -4.0245092272936739e-002 -2.4552212969979248e-001
      -2.8736860158160399e-001 8.9791353223069428e-002
      5.0463743284558049e-002 -2.6767408651871313e-002
      4.2750238191384943e-001 4.7528659625182090e-001
      6.5923619246834242e-003 7.3928810919217613e-001
      -1.5229065994739230e-001 -1.8204108604788211e-001
      -4.9451715249520872e-001 8.9386143071560220e-001
      1.4279202635981794e-001 3.5538863138447779e-001
      -1.4898195358921884e+001 1.0487006544758944e-001
      6.2078539438933644e-001 -1.1214502236547828e+000
      6.6271214572223791e-001 1.3203434097108038e+000
      -5.3027592325124406e-001 1.5509053648273994e+000
      -3.8370872270893763e-001 -1.7179151587525678e+000
      1.4542797632204676e+000 -5.4995669626962607e-001
      -3.2041763098040738e-001 1.1839594262869582e+000
      -9.0168092223659302e-001 -1.2907658034741016e+000
      1.8862442959819916e+000 1.4512147795478103e+000
      1.8411826837338472e+000 3.1489550144948288e-002
      2.5691296445866940e-001 -1.0526769234390270e+000
      -7.9635692220405285e-001 1.6366351764468514e+000
      -3.1194450145643338e-001 2.0297627594828520e+000
      2.6172872416713044e-001 1.1069535769652852e+000
      -1.1408637455052044e-001 -2.2802331254623631e-001
      2.2296405142851977e+001 2.9535879134151405e-001
      -1.1189573395052250e+000 2.3682160176800506e+000
      1.7588073024088807e-001 -8.2203568548310202e-001
      -1.1559620171546725e+000 -1.5801838127409285e+000
      -2.8450637563800836e+000 -1.3948254729899139e+000
      -4.6142466387707315e-001 1.9830358612970052e+000
      -1.4486569788316690e+000 3.4825387848384931e-001
      1.2789995175813995e+000 1.5006587072408459e-001
      -2.1039938781630441e+000 1.9399178696578960e+000
      -4.3606056278773198e-001 -2.2890382567862341e-001
      2.1389436635325101e+000 2.3693828942929063e+000
      -5.5035525290457277e-001 3.7254177326012083e+000
      -1.5554087303219502e+000 -2.3118163241380558e+000
      -1.6092416576527548e+000 -1.3529821591027351e+000
      -9.5888584272724697e-001 -9.7658407378359224e-001
      2.9068463187653482e+001 8.2411234238137498e-001
      -6.5791729419898626e-001 9.8448508167253690e-001
      4.1725308697246644e-001 6.8045215425842542e-001
      -2.2132672863464351e+000 -8.5864456542994427e-001
      1.9421708504797877e-001 -3.4735829296626859e+000
      8.9264268509558520e-001 1.1287731550257717e-001
      -1.0372180483199935e+000 5.9822642618212152e-001
      9.1533696426237578e-003 1.8746878702342837e-001
      9.1240789876426698e-002 3.1187085439007940e+000
      -2.0000539138716314e-001 -2.4707871000435513e-001
      1.0897439643555069e+000 8.0352476729552688e-002
      -6.2356907371288639e-001 1.8148190580123125e+000
      -1.7026032143557959e+000 -4.4703772036741862e-001
      -1.3279254084303695e+000 -1.0697993223537414e+000
      -2.6404768037625109e-001 -6.5399037980498997e-001
      -3.0234916142706272e+001 -3.5641580365126013e-001
      7.1222333422831907e-001 -1.5493650783773723e+000
      -9.3529820876318526e-001 -2.6708975174589850e-001
      8.2788719180515147e-001 1.9139419694373274e+000
      1.2633584999171696e+000 6.7480584214428363e-001
      6.8791575693641993e-001 -1.5095091630838087e+000
      1.1441369387672620e+000 2.0730872336735873e-002
      -1.3190206240310622e+000 -1.0756140724607490e+000
      -1.9183736622321473e-001 -3.8390171645374854e-001
      6.5885472724304661e-001 -1.0278746285337347e-001
      -1.4269187478094225e+000 -2.1332382022552596e-001
      2.6720973934081210e-001 -7.4035744509222279e-001
      9.6015826642958435e-001 1.9844851083360937e+000
      1.0982710276783865e+000 2.0113178569739367e+000
      9.0339992504100586e-001 4.5983329896802994e-001
      -1.1796659984205570e+001 1.2045930831301839e+000
      -1.7657410685599306e+000 -1.2574609649536786e-001
      2.6312057577543340e+000 2.0047425799212300e+000
      -6.6912967864911266e-001 -2.8820657787590648e-001
      -1.1317326498692806e+000 -1.8391591592377425e+000
      1.5714820222885100e+000 1.0084497591921360e-001
      -1.8944080245718664e+000 2.0863038621932923e+000
      2.8586313328417773e-001 -1.2472366664744601e+000
      2.1066440171462011e+000 1.5411133680986955e+000
      1.7012413769106067e+000 1.6228649455512839e-001
      7.9970772489710940e-001 -2.5179376613992024e+000
      -2.0262465602359057e+000 1.7438643557403304e+000
      -2.3068041813781242e+000 4.3716113357478109e-001
      -4.6160295570875565e-001 -9.8812772653859759e-001
      -1.3074690057262868e+000 -9.1113662694358999e-001
      2.2802011693998157e+001 -1.3155187023927144e+000
      2.0051671724881581e+000 8.1019407992417636e-002
      -1.5441610979858649e+000 -9.7712642799727767e-001
      -1.4001743352852074e+000 1.3908641039941945e+000
      -9.6162685962625549e-001 -5.4160514295113915e-001
      -2.8805253804559694e-001 -2.1748513887541335e-001
      1.2748687693365377e+000 3.1429961669835854e-001
      5.4041954677842974e-001 5.3060897033610477e-001
      -1.5806778392745602e+000 4.8123129347067067e-001
      6.9314581457548888e-002 3.7523037401653853e-001
      -1.0065119105777922e+000 7.3323751545322377e-002
      1.5251589149764284e+000 3.3801444088776158e+000
      8.3305073610895553e-001 -1.2008859864706652e-001
      -1.0662367140102555e+000 9.6099622594504364e-001
      8.1924862517268354e-002 6.6575543814600846e-001
      2.7659302004669456e+001 -6.1898930384398310e-001
      9.9683544441562599e-001 -7.4290167844885324e-001
      -5.5013663437794458e-001 5.1487666500675711e-001
      -2.1803348439643702e+000 6.5687450546131898e-001
      8.5300795141954144e-001 -1.9828154054621261e+000
      1.3222817254445332e-001 -3.4038238655076591e-001
      3.5397555096366179e-001 -1.2226016398812140e-001
      3.5322884031668422e-001 1.0163185901666578e+000
      -3.1630892278639230e-002 1.4830189184830336e+000
      -7.9783914336028205e-001 9.7492287536879066e-002
      -4.7548980754218850e-001 4.2529870732321140e-001
      1.1956035128385272e+000 2.7060973487967757e+000
      2.8196930181534768e-001 1.0111134507442174e+000
      -1.2314710490958662e+000 1.8099873062736177e-001
      8.4985669235725336e-001 5.8739236881707269e-001
      -2.7404408816377000e+001 1.5261165004051886e+000
      -1.9868112572631806e+000 7.4096917308057064e-001
      1.8277025104964546e+000 3.1303075667704371e-002
      5.5794346918636217e-001 -9.8725233345633689e-001
      -4.5996663374372398e-001 1.7442448246685890e-001
      5.8438202959787133e-001 1.7248492356918677e+000
      -7.4613480215132166e-001 2.9364420630298121e-001
      -7.9766403432246924e-001 -4.2913156629437510e-001
      6.5629440319087157e-002 3.3933403543373802e-001
      1.1475789225401269e+000 -4.2418659396786063e-001
      7.9054191592217349e-001 -1.2863885311363608e+000
      -1.7965413017637346e+000 7.2930728827362146e-001
      -2.0564203881229037e+000 -3.9669852481743750e-001
      9.7377306660115653e-002 -8.8769361333534524e-002
      -5.3847350550700460e-002 -1.5481841292112575e+000
      2.1973525292650034e+001 -7.5593063437742369e-001
      1.6178318405891980e+000 -2.9902128425147674e+000
      -7.1729820000599520e-001 -9.3064202506292804e-001
      1.8950530696751753e+000 1.8571028242307424e+000
      2.5574838307407619e+000 -3.8913213925207985e-001
      -2.5993985623653759e+000 -3.5406433523189496e-001
      2.9616991034148299e+000 -8.5078443695002104e-001
      1.2428694727160856e+000 3.7894419947191560e+000
      -1.1819522924972981e+000 -2.2433271789917736e-001
      -2.1792306139713194e-001 -7.0895725858907566e-001
      -1.4656704011484627e+000 -5.8036601238863001e+000
      2.2124723140977771e+000 -1.0168039541650364e+000
      1.6520349829867201e-001 8.2357262368554751e-001
      5.4144637748389479e-001 4.3377927080251749e-001
      4.0894127314658499e+000 2.4764752384084314e+000
      2.1354326183663844e+001 2.4307615097760569e+000
      -2.2490944637525051e-001 1.2734193110528175e-001
      2.1472267894778421e+000 -8.8957099750725188e-001
      1.1532875292918572e+000 -1.0050784846177456e+000
      7.4017578309847987e-001 -8.9550484070690950e-001
      -1.9626873143659742e+000 2.6845702040513770e+000
      -7.7691555861987904e-001 2.5271318778301266e-001
      2.1538514143163958e+000 4.1347100674425219e+000
      -8.9726457558915740e-001 -7.1362297516665951e-002
      2.2400091743606787e-001 -1.0128122544724181e+000
      3.8753964621268550e-001 -4.9651936526886020e+000
      -6.8537772308214540e-001 -7.6912768683525989e-001
      -4.2209097651473676e-001 -9.7665815418557100e-001
      -3.1877396814165640e-002 -2.0051712263233745e+000
      -4.1364397637779093e-001 5.5187133201696459e-001
      -3.0568545256396003e+001 3.3443998041742057e-001
      -5.2305021976279342e-001 1.6384054291759870e-001
      2.6047038565156605e-001 -6.4738884511153161e-001
      4.0722155990723676e+000 3.2060911262899505e-001
      -1.1862732919263823e+000 8.1148109532832369e-001
      -7.2350980731955772e-001 -1.3642842370526329e+000
      -1.8851764449254909e+000 2.3070802648116566e+000
      7.7409478497569484e-001 -8.3600082766657402e-001
      -1.4034814870270209e+000 4.1769339552902551e-001
      -2.6827568171333622e+000 5.1819227212217980e+000
      -9.3898878541172959e-001 -4.9121963140203446e+000
      -1.0468858154598294e-001 -9.3957629785778463e-001
      -1.3749492775431786e+000 2.6525728270588429e+000
      -5.4222851815815631e-001 -1.2674090052938622e-001
      -4.0901628342973044e+000 -2.0055932471561646e+000</_>
    <_>
      -9.8420195519435330e-002 3.3241216014850215e-002
      -3.4126758585950677e-002 1.2860745698199777e-001
      -6.8058117703755000e-002 -1.8275979691785562e-003
      3.0933242692001203e-002 1.3186126271048165e-001
      6.0503495245595429e-001 -4.3931284099684037e-001
      1.9159268707262692e-001 2.9682495173975443e-001
      1.0934866357168621e-001 -4.7504714901394518e-002
      -6.0308808979829365e-001 -2.4594692744456326e-001
      5.8941378166419145e-001 -3.7623608204651726e-001
      -2.5097804377098110e-001 -5.1617820857167110e-002
      1.5758209371998599e-001 6.1930428320070893e-003
      6.9986617882236233e-003 1.1522681966633415e-001
      4.4729508831754511e-001 -8.1401087474505210e-002
      1.1821780918566391e-001 -6.8038999430148528e-001
      -3.5013852866873585e-001 1.3547481291443847e-001
      4.9201183738638526e-001 -1.1054335410362378e-003
      6.4023752872395057e-001 -7.9904780998346872e-002
      -2.5827348926303145e-001 4.6367209565573698e-002
      -2.0461348721451451e-002 -3.7302778699049181e-002
      -4.5018471831142298e-002 -1.1862778409525103e-001
      1.2333791743438483e-001 -2.1847558991894678e-001
      1.9229402525458966e-001 -3.7947919499620753e-001
      2.7985478714865508e-001 -3.4953711819597513e-002
      -5.7921365917621960e-002 1.9004217451380950e-002
      -4.8936011853811806e-001 -1.2990073132271676e-001
      1.3726158161912930e-001 1.5772736720160704e-001
      -1.4555352876313080e-001 -3.6606661660661982e-001
      8.0623514131202945e-001 1.0145298597379691e-001
      2.2770230509792480e-001 2.9072830665689492e-001
      -5.9049691254843273e-001 -5.0928787534946673e-002
      8.7922901461703090e-002 -1.0878007542943718e-001
      -3.8481570503281048e-002 3.5392206432765300e-001
      2.8245831587639797e-001 -5.2105035335700345e-001
      -7.5215354189961808e-002 6.3597758115352776e-001
      3.4387427476329724e-001 -2.6046506814557741e-001
      -2.8233404688917979e-001 1.4794951427181569e-001
      -6.6537812065711455e-001 -4.3867559149459112e-002
      -3.0686075382867068e-002 -6.1250148108901525e-001
      1.6053167055570222e-001 4.3603112045168119e-001
      6.6919933847060487e-001 -2.9397645168667063e-002
      4.0064105679387102e-001 -3.7045804439388452e-001
      2.9543766456619210e-002 -1.1911839210612334e-002
      7.9599861354170701e-002 1.0885712083123601e-001
      -4.1765863987937241e-001 2.0314630679854476e-001
      8.0922808287052939e-001 1.4568606310110449e-001
      -4.7239853055007985e-001 4.6790048660224076e-001
      -2.5783202273278616e-001 -1.2519131481965706e-001
      -3.9034386910191108e-003 -1.9711588890274551e-001
      5.8586100329822290e-002 -1.0687804867852128e-001
      -2.1761569083845872e-001 8.4469710187529834e-001
      5.9973284662201642e-002 -3.4366663847553949e-002
      -2.7419260210255858e-001 -3.5006356252239851e-001
      4.6423249234948633e-001 -1.9786755109607976e-001
      -5.0464655244041708e-002 -1.7890825153033030e-002
      3.0700360067689930e-002 -4.6509843008298878e-002
      -3.6286884685836551e-001 6.2864318756424162e-002
      1.7527948628879850e-001 -2.1950805565590756e-001
      1.2171774311317543e-002 3.3708724765110681e-001
      -2.9435671849151424e-001 2.0195782432873541e-002
      5.2718937191638844e-002 8.0977917261571997e-002
      -3.0620063916620766e-001 2.8254748634130711e-001
      -2.0660817813519120e-001 -1.5878600668281814e-001
      3.5495762882717274e-001 8.7657882067528073e-002
      -6.1731343725824150e-001 3.4333446963561726e-001
      -4.0046300491426978e-001 4.8311102957699803e-001
      -1.9664599230600122e-001 1.1924846317912094e-001
      2.2444460157602567e-001 3.0585272902004884e-001
      2.7692470268664715e-001 -9.5924154520365690e-001
      -7.7491711958743881e-001 1.9353622475463855e-001
      -1.9585187515599223e-001 -2.4929619654120494e-001
      7.8827054590926648e-002 2.1849535617666854e-001
      6.8261734483449388e-001 3.0800890592104033e-002
      -5.6088524725491873e-001 7.0224206455211657e-001
      -2.0626366410192398e-001 7.9710381795144525e-001
      -5.8207001664078017e-001 -8.5767754968702221e-003
      -6.0963179146263446e-001 1.3572304468751681e-001
      -6.0202447986465990e-001 3.4253144661403689e-001
      -1.1585020617761305e-001 7.6449936901364077e-002
      6.4244658536726271e-002 -1.2663748930903745e-001
      -4.7692474498161158e-001 -4.0356594464287571e-001
      -5.5929441319053796e-001 2.1529597570556000e-001
      -3.4986768151137815e-001 5.4291643986442456e-002
      1.2983933216816132e-001 -3.8122829825531238e-002
      2.2643224012992194e-001 4.4652903286424844e-001
      6.5778376809949946e-001 3.1322405064689074e-001
      6.4294187515998025e-002 2.1748703375651618e-001
      3.7062299078052023e-002 5.5697943838991161e-002
      -3.9421432529593575e-001 -9.3349840543058826e-001
      2.7687688217789852e-001 3.2865444525938059e-001
      8.7260790421704329e-002 2.8329198349860418e-001
      6.9130968187990888e-002 -2.8659154344178265e-002
      -4.5853816139481435e-001 -4.7111112926427534e-001
      -6.3034439110265550e-001 -2.0915936757828334e-002
      1.2470264765961939e-001 -1.8538784198485848e-002
      -7.2709023019098623e-002 -4.9176782843209482e-001
      9.8999219431768404e-001 6.6549756906734425e-002
      -2.6395857282790031e-001 1.0404444628846485e-001
      -5.6716217269277239e-002 -5.4473597877352153e-001
      1.2469277842120617e-002 -1.5282078221332859e-001
      4.8931405428884978e-001 3.7278388521591835e-002
      7.2713691238314537e-001 -2.5026952714266859e-001
      -1.6760408278617861e-001 -6.5632355171872617e-002
      -1.5667196321914245e-001 -4.5680781478500819e-002
      3.9221936040182520e-001 -2.7805882951977023e-001
      2.3137658543676104e-001 -4.9962759631497447e-002
      1.5997746928817752e-001 1.1578517591624246e-001
      -6.6974598060180413e-002 -1.4936853899019439e-001
      -2.9772229129391165e-001 -3.6544756109540832e-002
      8.5919660603690027e-003 -1.7508801469260019e-001
      -4.6831070713127254e-002 6.3997788038499037e-001
      -3.2663789320863007e-001 9.7769723495905847e-002
      -1.2478909895024440e-001 1.3857197836505986e-001
      -7.1918018298025299e-003 2.5937649054028639e-001
      -9.7992889517502096e-002 -7.4364487362470566e-001
      -4.3934964090542394e-001 1.7472692678710899e-001
      5.1394591753348473e-001 5.8090482435437307e-001
      6.2298562854813400e-001 -1.8902792235697286e-002
      1.6125535067637708e-001 -1.1906855541464059e-001
      -3.3776514713882599e-001 2.0072543938612603e-001
      -3.4170064749356376e-002 -2.8515706613539066e-001
      -3.7620745849030768e-001 -9.1013130613094240e-001
      -1.8613952564856810e+000 -1.0763275320291690e+000
      -2.2543812774633882e+000 -1.4213831890320008e+000
      -2.2010290773997436e+000 -9.9678339896159052e-001</_></weights></my_nn>
</opencv_storage>
